digraph Tree {
node [shape=box, style="filled, rounded", color="black", fontname=helvetica] ;
edge [fontname=helvetica] ;
0 [label="petal width (cm) <= 0.8\ngini = 0.66\nsamples = 97\nvalue = [55, 44, 51]\nclass = setosa", fillcolor="#fefaf7"] ;
1 [label="gini = 0.0\nsamples = 35\nvalue = [55, 0, 0]\nclass = setosa", fillcolor="#e58139"] ;
0 -> 1 [labeldistance=2.5, labelangle=45, headlabel="True"] ;
2 [label="petal width (cm) <= 1.75\ngini = 0.5\nsamples = 62\nvalue = [0, 44, 51]\nclass = virginica", fillcolor="#eee4fb"] ;
0 -> 2 [labeldistance=2.5, labelangle=-45, headlabel="False"] ;
3 [label="sepal length (cm) <= 7.1\ngini = 0.21\nsamples = 35\nvalue = [0, 44, 6]\nclass = versicolor", fillcolor="#54e992"] ;
2 -> 3 ;
4 [label="petal length (cm) <= 5.35\ngini = 0.18\nsamples = 34\nvalue = [0, 44, 5]\nclass = versicolor", fillcolor="#50e88f"] ;
3 -> 4 ;
5 [label="petal length (cm) <= 4.95\ngini = 0.12\nsamples = 33\nvalue = [0, 44, 3]\nclass = versicolor", fillcolor="#46e78a"] ;
4 -> 5 ;
6 [label="petal width (cm) <= 1.65\ngini = 0.05\nsamples = 29\nvalue = [0, 40, 1]\nclass = versicolor", fillcolor="#3ee684"] ;
5 -> 6 ;
7 [label="gini = 0.0\nsamples = 28\nvalue = [0, 40, 0]\nclass = versicolor", fillcolor="#39e581"] ;
6 -> 7 ;
8 [label="gini = 0.0\nsamples = 1\nvalue = [0, 0, 1]\nclass = virginica", fillcolor="#8139e5"] ;
6 -> 8 ;
9 [label="sepal width (cm) <= 2.45\ngini = 0.44\nsamples = 4\nvalue = [0, 4, 2]\nclass = versicolor", fillcolor="#9cf2c0"] ;
5 -> 9 ;
10 [label="gini = 0.0\nsamples = 1\nvalue = [0, 0, 1]\nclass = virginica", fillcolor="#8139e5"] ;
9 -> 10 ;
11 [label="sepal width (cm) <= 2.75\ngini = 0.32\nsamples = 3\nvalue = [0, 4, 1]\nclass = versicolor", fillcolor="#6aeca0"] ;
9 -> 11 ;
12 [label="gini = 0.0\nsamples = 1\nvalue = [0, 3, 0]\nclass = versicolor", fillcolor="#39e581"] ;
11 -> 12 ;
13 [label="petal length (cm) <= 5.05\ngini = 0.5\nsamples = 2\nvalue = [0, 1, 1]\nclass = versicolor", fillcolor="#ffffff"] ;
11 -> 13 ;
14 [label="gini = 0.0\nsamples = 1\nvalue = [0, 1, 0]\nclass = versicolor", fillcolor="#39e581"] ;
13 -> 14 ;
15 [label="gini = 0.0\nsamples = 1\nvalue = [0, 0, 1]\nclass = virginica", fillcolor="#8139e5"] ;
13 -> 15 ;
16 [label="gini = 0.0\nsamples = 1\nvalue = [0, 0, 2]\nclass = virginica", fillcolor="#8139e5"] ;
4 -> 16 ;
17 [label="gini = 0.0\nsamples = 1\nvalue = [0, 0, 1]\nclass = virginica", fillcolor="#8139e5"] ;
3 -> 17 ;
18 [label="gini = 0.0\nsamples = 27\nvalue = [0, 0, 45]\nclass = virginica", fillcolor="#8139e5"] ;
2 -> 18 ;
}