digraph Tree {
node [shape=box, style="filled, rounded", color="black", fontname=helvetica] ;
edge [fontname=helvetica] ;
0 [label="sepal length (cm) <= 5.45\ngini = 0.67\nsamples = 102\nvalue = [48, 51, 51]\nclass = versicolor", fillcolor="#ffffff"] ;
1 [label="petal length (cm) <= 2.45\ngini = 0.3\nsamples = 37\nvalue = [45, 9, 1]\nclass = setosa", fillcolor="#eb9c64"] ;
0 -> 1 [labeldistance=2.5, labelangle=45, headlabel="True"] ;
2 [label="gini = 0.0\nsamples = 31\nvalue = [45, 0, 0]\nclass = setosa", fillcolor="#e58139"] ;
1 -> 2 ;
3 [label="petal width (cm) <= 1.55\ngini = 0.18\nsamples = 6\nvalue = [0, 9, 1]\nclass = versicolor", fillcolor="#4fe88f"] ;
1 -> 3 ;
4 [label="gini = 0.0\nsamples = 5\nvalue = [0, 9, 0]\nclass = versicolor", fillcolor="#39e581"] ;
3 -> 4 ;
5 [label="gini = 0.0\nsamples = 1\nvalue = [0, 0, 1]\nclass = virginica", fillcolor="#8139e5"] ;
3 -> 5 ;
6 [label="petal length (cm) <= 5.05\ngini = 0.53\nsamples = 65\nvalue = [3, 42, 50]\nclass = virginica", fillcolor="#ece1fb"] ;
0 -> 6 [labeldistance=2.5, labelangle=-45, headlabel="False"] ;
7 [label="petal width (cm) <= 1.75\ngini = 0.3\nsamples = 37\nvalue = [3, 42, 6]\nclass = versicolor", fillcolor="#61ea9a"] ;
6 -> 7 ;
8 [label="sepal width (cm) <= 3.6\ngini = 0.13\nsamples = 31\nvalue = [3, 41, 0]\nclass = versicolor", fillcolor="#47e78a"] ;
7 -> 8 ;
9 [label="gini = 0.0\nsamples = 29\nvalue = [0, 41, 0]\nclass = versicolor", fillcolor="#39e581"] ;
8 -> 9 ;
10 [label="gini = 0.0\nsamples = 2\nvalue = [3, 0, 0]\nclass = setosa", fillcolor="#e58139"] ;
8 -> 10 ;
11 [label="sepal width (cm) <= 3.1\ngini = 0.24\nsamples = 6\nvalue = [0, 1, 6]\nclass = virginica", fillcolor="#965ae9"] ;
7 -> 11 ;
12 [label="gini = 0.0\nsamples = 5\nvalue = [0, 0, 6]\nclass = virginica", fillcolor="#8139e5"] ;
11 -> 12 ;
13 [label="gini = 0.0\nsamples = 1\nvalue = [0, 1, 0]\nclass = versicolor", fillcolor="#39e581"] ;
11 -> 13 ;
14 [label="gini = 0.0\nsamples = 28\nvalue = [0, 0, 44]\nclass = virginica", fillcolor="#8139e5"] ;
6 -> 14 ;
}